-0.0149657712357548,0.0561409118990199,-0.0305667079180419,-0.05751535835705,0.0574909136222129,-0.0263351783578389
-0.00976848647729777,0.0612529442498351,-0.0271728105474332,-0.0717832149305798,0.0484388733519118,-0.0561437234125055
-0.00907630076629686,0.0637709661392987,-0.0213230157938326,-0.066489106066965,0.0483545432251515,-0.0433505696015052
-0.00597496615159322,0.0704936757153591,-0.00961382287515776,-0.0468297281967022,0.0382235805526165,-0.0593825564336464
-0.00570265041531168,0.0710397467415333,-0.00216271607156127,-0.050524911824539,0.055839581828979,-0.0197549572171069
-0.00549643780834963,0.0724493311557452,0.00319233301414755,-0.0448311199478978,0.0606502544862449,0.0147778690884025
0.000438904100422626,0.0759507528421095,0.00722916577706186,-0.0397881368083362,0.0843986106385172,0.0118219196309415
-0.00714494155524343,0.0699748059837687,0.00144059570194066,-0.0343937927067187,0.0786996422256944,0.066229387953441
-0.0158677599406528,0.0600106300602056,-0.0102192859154363,-0.0196979565659428,0.0864333257793368,0.0227399400570345
-0.0307722653713207,0.0419400314351963,-0.0300744963553699,-0.0339227176026304,0.0841667516206449,0.0511296096532928
-0.043678236511065,0.0269650228573667,-0.0429119261892586,-0.05550237404412,0.0653759404782823,0.00666743815821679
-0.0498873514141088,0.0178396459412797,-0.051222070366583,-0.0511114586189401,0.0739905569395674,0.0179910332959591
-0.048883497276011,0.0181547774925932,-0.0536791724470667,-0.0518722582489421,0.0716797853511009,0.00439073085603385
-0.047429986030375,0.0186342152609279,-0.056010975289505,-0.0600194735142535,0.067639652918262,-0.0225277167121697
-0.0435868725880358,0.0240324866521698,-0.053271760374272,-0.0585162227527568,0.061180264812531,-0.0141357101443805
-0.0436641994153742,0.0242804055184987,-0.0545680348629444,-0.0773127466409784,0.0464350076607005,0.003008846951387
-0.0407119335693265,0.0265920373704119,-0.0550194335276516,-0.0728490960674162,0.0512509983663676,0.00204114141056314
-0.0385908894470755,0.0292035126481478,-0.0522804603886248,-0.077881242628101,0.0491236440591636,-0.0152307021458717
-0.0344086929327133,0.033793797944646,-0.0515371377811195,-0.0831874967842443,0.0396775043127049,-0.0185556328046718
-0.02934564146455,0.0395537072823982,-0.0476378714074978,-0.0812705463565274,0.0416252598273046,-0.0119554197884307
-0.0276671520263248,0.0415271333938375,-0.0456008111487779,-0.0771715855203231,0.044604633974951,-0.000828348622655555
-0.0244517200110381,0.0447675408319447,-0.0450040696265444,-0.0758456406917378,0.0445276603805861,0.0126331237972334
-0.0205570479765003,0.047740647203444,-0.0454751732290581,-0.0808051689682444,0.0368809300419913,-0.0463576713361458
-0.0194656723026993,0.048224295527172,-0.047737069192916,-0.0815753505796512,0.0356792113028436,-0.0190389628459337
-0.0170692537990196,0.0507313522142083,-0.0472015786948558,-0.0697842221451644,0.0368623784850391,-0.0311829211740182
-0.0170883381427186,0.0509110652535616,-0.0466228947304676,-0.0684418622349246,0.0379902311618756,-0.0309062401970076
-0.0138807258578341,0.0530620116039573,-0.0466720104904292,-0.0602889448605464,0.04874821772208,-0.0111996934216036
-0.0169705238649988,0.0505539488585603,-0.0489302620992739,-0.0670715750395735,0.0378792727325064,0.0125233916591787
-0.0154512146335302,0.0518632015974275,-0.0493618545903538,-0.0675271656476207,0.034888805521532,-0.00449773263018845
-0.0125130109289408,0.0549849833515271,-0.0474931618964971,-0.0606813836335668,0.0357996424248652,-0.0203473396459083
-0.0114053927166807,0.0559506037820991,-0.0465959502835164,-0.0620824637424516,0.0409323278553545,0.000313272523455251
-0.0128136241537941,0.0539778483751069,-0.0490405918103638,-0.0677123435073785,0.0371140153876032,0.000318586136217587
-0.00957226957861619,0.0576047559661754,-0.0455102460470569,-0.049130619661245,0.0482195248799537,-0.00960345034488488
-0.0112539899080929,0.0555331952047467,-0.0473341834792785,-0.053271396036829,0.0482318055996395,0.00545139377646184
-0.011016040613078,0.0561420933956273,-0.0460789293204534,-0.0528287076211731,0.0475188341355344,0.00822111359642786
-0.00812461901652951,0.0587519708872961,-0.0448914946235614,-0.0502951288540048,0.0472277867742258,0.00432134632594184
-0.00918851488416488,0.0574250564487797,-0.0443930465390065,-0.0375159909939681,0.0598930564944007,0.00398119682759059
-0.00887480814178928,0.057449337002646,-0.0453863811765084,-0.0456062344043732,0.0515239151573026,0.00320792203177203
-0.00814301300411823,0.0587168041297686,-0.0423042912080891,-0.028811879921874,0.064878157805135,0.0249179194752597
-0.0090554558467442,0.0576405327135189,-0.0425965870803419,-0.0306594071249134,0.0612602034753516,0.011443806495218
-0.00712860684405451,0.0603220236970273,-0.0386374216015324,-0.017965113270247,0.0646335752065063,0.0164282292611882
-0.00627459819933027,0.0614063884234872,-0.0370280258652742,-0.0238737117619266,0.0533369253375944,-0.01412496805532
-0.00763976308180724,0.0598363441256338,-0.0369757637468726,-0.0246413732704568,0.0621023585769466,0.0190810364063967
-0.00721621902965699,0.0603709757992556,-0.0366730135887408,-0.0215866444768287,0.0592316612354404,0.014896439797224
-0.00616994795827578,0.0614794617149017,-0.0362928601560514,-0.0288547665605552,0.0546606393200158,-0.00652729474755943
-0.00669051563651304,0.0618688165863166,-0.0353973242111036,-0.0278464704818657,0.0554432168149913,0.0126724268794557
-0.00330753479618809,0.0655040604497204,-0.0331926717019123,-0.0237975086405314,0.061463881623349,0.0189755883916092
-0.0024031825819119,0.0670599748098467,-0.0321122337034154,-0.0304773289579835,0.0549691809271086,-0.00213536962402536
-0.0016909967029857,0.0678805192536297,-0.0328644326315542,-0.0296114401412007,0.0548691954845884,0.00259947041859215
-0.00126793169671826,0.0686323363164961,-0.0322029338231197,-0.034538659943113,0.0532679024865655,0.0142856883060656
-0.00358050853723686,0.0666842816936884,-0.0336041901953801,-0.0416621339144164,0.0453590328914429,-0.00866352405463445
-0.0032938399542227,0.0675953909799317,-0.0318448603911299,-0.0354381190135778,0.0486532628672635,0.013215488833752
-0.00264203539344922,0.0681818201743735,-0.0310820561523145,-0.0392460377769865,0.044235356299519,-0.0170080726451251
-0.00311991572254235,0.0683084992013454,-0.0301963788633991,-0.0296005454002336,0.0450963964065203,-0.00341284407577444
-0.00346249085453099,0.0677139583597723,-0.03088644080149,-0.0365065944757277,0.0426901501181299,0.00216364084634985
-0.00317887324016894,0.0683102940747344,-0.0300956300911552,-0.0462558097602931,0.0336751249897557,-0.0124645639760839
-0.00416119778869645,0.0686014351860121,-0.0264697664020097,-0.0393712949025161,0.0374837116886952,-0.00758855092679096
-0.00388617676574064,0.0694257868422445,-0.0244528586898863,-0.0399501639694738,0.0375990685846116,0.00302330329275328
-0.00431378624979299,0.0698368241057201,-0.0216653592881981,-0.0374669752174133,0.0387347599556259,-0.00686298825238579
-0.00561986413949279,0.0685913731158715,-0.0223242630835036,-0.0344576083367912,0.0443663054666544,-0.000618241711163852
-0.00668262160478106,0.0671956569841072,-0.0238922523256321,-0.037195881821072,0.0462722162343981,0.00425544146471455
-0.0099877562286751,0.064649212826797,-0.0252115687809696,-0.0263749312108369,0.0463548063782418,0.021602161762072
-0.0125076393404015,0.0619072241858896,-0.027222211294383,-0.0275040777403863,0.0459709178767276,-2.64982417989914e-05
-0.0134341486592064,0.0609988051386368,-0.0279786379982126,-0.0218864622153565,0.051388094764377,0.0311112302851648
-0.0156022707511642,0.0582409193078704,-0.0314640217739851,-0.0238759700494611,0.0472259553134139,0.00404430531512431
-0.0193869381570826,0.0539269843146509,-0.035060733435146,-0.0292664518974926,0.0477567657080559,0.00935824582285738
-0.0216221419038994,0.0517023634435256,-0.0372913817739511,-0.0294129489681299,0.0427487307691599,0.0125832346209723
-0.0230087739079043,0.0498322933033487,-0.0387956835229212,-0.0274113970816692,0.0485917115988474,0.0240735473885798
-0.0239010340473942,0.0489354625596559,-0.0398751992345059,-0.0327631461064306,0.0391253084272995,-0.00567913082069341
-0.0243125440300195,0.0486787567316799,-0.0397385615742277,-0.033267074728624,0.0393037940992066,-0.00127175344029116
-0.0223423491887262,0.0501302166620847,-0.0406498381463723,-0.0374626390975942,0.0354464994601944,-0.00485522844030968
-0.0213914795153158,0.050838698497493,-0.0408034165033191,-0.042655906368857,0.0345846640455115,-0.00363401244484423
-0.019951432195968,0.0524150496418978,-0.0394350703179144,-0.0309001274220781,0.0435249125537929,0.0252106064105264
-0.0173608131257622,0.0542939018322825,-0.0401952588994928,-0.0395966915744085,0.0382733351115083,0.0146654390023495
-0.017229558866823,0.0531913593162686,-0.0415141578730564,-0.0421918225275753,0.0478510167348749,0.0107490804429405
-0.0146859104391107,0.0557911820188878,-0.0406344950229433,-0.0456392199316001,0.0405157743488602,-0.00202813233735356
-0.0156319250361259,0.0557538658661884,-0.0396489850078211,-0.0373976247765936,0.0386838342222062,0.0133200577878375
-0.0161179601163367,0.0558199523951087,-0.0391651303202176,-0.0384458385327115,0.030955378534447,0.00429789970778818
-0.0150102949820896,0.0566987478150279,-0.03943260945145,-0.032780319509676,0.0336576533998032,0.0241615832997907
-0.0133674811036143,0.0581549701680966,-0.0393825605105695,-0.041622749052221,0.0247104354380161,0.00157985705349042
-0.0123773267779811,0.0593994203831164,-0.0380087443383903,-0.0311655797725482,0.0278089180312372,0.00391324312015501
-0.00995003066028136,0.0615329521712119,-0.0378018885837646,-0.0324020826008252,0.0255100964065522,-0.00373782774045544
-0.0104165386301864,0.0616249635960642,-0.0365517667915041,-0.0313781206032828,0.0277965504237404,0.0129946107646528
-0.0104929568701086,0.0621072065760996,-0.0347671575210747,-0.0277595080037815,0.0305737069089349,0.0177833344764782
-0.0111203293882619,0.0617535979411039,-0.0341297989537426,-0.0350650519129368,0.0270275898641521,-0.00261097873652407
-0.0118622279917385,0.0620066331876366,-0.0319486080164316,-0.029220124436569,0.0266552209587984,0.00773111040190501
-0.0138969096153143,0.0603512764917622,-0.0315560037862204,-0.0292048218790901,0.0270076340997415,-0.00157596995450657
-0.0153295976484865,0.05934913011236,-0.0312907903548187,-0.036370178035685,0.0150839320910662,-0.0253497124931007
-0.0165161687687032,0.0579231472793959,-0.0327674536662467,-0.0312528198618875,0.0172949681699862,-0.0173164605367228
-0.0186403353457937,0.0552269771119543,-0.0357671815230829,-0.0345644241575161,0.0142673637789003,-0.0283813310044029
-0.0185083437711544,0.0548197777165452,-0.0375757240284453,-0.0293668565623995,0.0170287381608161,-0.0237930831551366
-0.0185848639232408,0.054559794202959,-0.0388279348725291,-0.0238466900572382,0.0204065098736595,-0.0101775213054904
-0.0166891609804465,0.0563025202444272,-0.0384950329257361,-0.0277547981638536,0.0159712578395757,-0.0290942071920387
-0.0159811282096928,0.0565541053997833,-0.0394940638208877,-0.0156617285091494,0.0270510284371515,0.00342090854687571
-0.0148627587599554,0.0569797026864124,-0.0408635719766889,-0.0249951613103439,0.0229871902598357,0.000607714367896277
-0.015423624033027,0.056167481281819,-0.0416802399876245,-0.0204656940331809,0.0283242670300029,0.0111707665700744
-0.0146899060230475,0.0571177712676691,-0.0410190461599351,-0.0146051864871272,0.0256811803015454,0.0154690504720233
-0.0156354758675027,0.0557919739569157,-0.0431961297598077,-0.0188052579916172,0.0165040550982728,-0.00367605948506897
-0.0157959638285065,0.0556464530389126,-0.0431484587384915,-0.0116909357499974,0.0169576696065528,-0.00108496021928161
-0.0188244112208246,0.0523774707773017,-0.045408870376108,-0.0103151883706541,0.0224055846304595,0.0163758820587869
-0.0183203673132096,0.0522565608742284,-0.0473178389901789,-0.0194749612564601,0.0136616614358708,-0.00652974392993659
-0.0156605308744455,0.0544491710827061,-0.0469778225802912,-0.0159608061504823,0.0185321480685794,0.000309484982100896
-0.014869099769039,0.0541183915228457,-0.0497979586049064,-0.0220560477665469,0.013279542983046,-0.00369996088907642
-0.0121097012836717,0.0562794525154774,-0.0496403758858001,-0.0168054961138147,0.0155088983765948,-0.00721694231794221
-0.0124526460074774,0.0552158085674817,-0.0516344968388619,-0.0175465463379185,0.0163389099182074,0.00196923934145345
-0.0123432769824359,0.0537601549103378,-0.0554433650981424,-0.0172303117993754,0.0184226615958357,-0.00247081336999732
-0.0140855227111908,0.0502630742145289,-0.059851078524212,-0.00978601714716876,0.0273738028107435,0.0205049535441285
-0.0165828840301485,0.0473088589359953,-0.062562608046698,0.00508514352998283,0.0271041168241928,0.0270030570064766
-0.0158893808617112,0.0451189015394201,-0.0686981928756801,-0.00358554942806424,0.0190512489700224,0.0185760665187517
-0.0111801210635286,0.0459146323150947,-0.0738446393474894,0.00479354897681904,0.0182723922516533,0.00408944414442218
-0.00221612589021256,0.0485574916063045,-0.0799042963180983,0.00261435816978536,0.0126580061442716,-0.00032750803912469
0.0121903691871989,0.0533186356667044,-0.0853473914645106,-0.00387321270631017,0.00113333877993639,-0.0148865524227258
0.0258068975172093,0.0540409525620277,-0.0919097203832875,0.00063270622646955,0.000797768830898471,-0.010747480167943
0.0400503604028586,0.0518928075423235,-0.0969011918890349,-0.00653063961563889,-0.0137564490793767,-0.0318425424379383
0.0526313939282324,0.0480140824501454,-0.0974591366492067,-0.00381349782900491,-0.0141050430091568,-0.0286114287300081
0.0614213596797625,0.0420001624436017,-0.0950007110568431,-0.00426955722989459,-0.0208598172532793,-0.0475554446419064
0.0658710732869158,0.0341868463031221,-0.0919558689953574,-0.00153754521379873,-0.0164865878956853,-0.0421671047404038
0.0702569433033871,0.0297346877237496,-0.0859203089358297,-0.00147068031490229,-0.019367396662294,-0.0480211247871169
0.0716954860103357,0.0254844958410189,-0.0820384564285583,-0.00134582603264562,-0.0210157090492705,-0.0513334580928901
0.0727816381939825,0.0227697499166277,-0.0786593003579699,-0.00319996966363704,-0.0260525188392726,-0.0591665963331048
0.0724238294945229,0.0203301285505643,-0.0775429259377491,-0.00418328779270635,-0.0273665588345323,-0.0587176924221911
0.0722983340168659,0.0192513421530038,-0.0769911565906644,-0.000671547975056638,-0.0258096051217896,-0.0519369716133789
0.0726162802139577,0.0197698172392946,-0.0766257632476674,0.00528443639638992,-0.0219660197968272,-0.0310754561072367
0.0741787061649215,0.0228468014868565,-0.0754661875164217,0.0126108419235784,-0.0172278107172382,-0.0155297316828461
0.0758943181341444,0.0268224727282916,-0.0744880754981984,0.0174511391022504,-0.0134005826347935,0.00029750592269905
0.079536571886597,0.0347791180824783,-0.0715939803187744,0.0275993839874831,-0.00613520330954324,0.0262307569664127
0.0794830388030086,0.0422272168568258,-0.0725090514808551,0.0414316426203925,0.00175167657834465,0.0475423065180295
0.0719555507988115,0.0464423206849104,-0.0794162771733756,0.0647161971209239,0.0191643314643322,0.0870295765686146
0.0446487012799911,0.0438657053408292,-0.0928056192543838,0.104435455924689,0.0440882979291578,0.146254118097217
-0.0157063570651162,0.0183834112796657,-0.1012097232908,0.117831283286253,0.0582664194645782,0.141641791545214
-0.0635973949736859,-0.00657131630279871,-0.0812882575258773,0.0982603866920234,0.0557809567822981,0.117703118046901
-0.0795528035084052,-0.0122939704414716,-0.0535705240439613,0.0780861660914803,0.0423576404051243,0.0876986912334322
-0.0859732748146311,-0.0155755030261097,-0.0371789723712873,0.0576623976219582,0.0431639195247252,0.0516762216769408
-0.0832717128361544,-0.00928423417807554,-0.0181335259192692,0.0515961088241389,0.0376027486937654,0.0390669224836659
-0.0786872570240395,-0.00227719549614235,-0.00286201201327202,0.0360201983324894,0.0287627747784092,0.0133492038290478
-0.0716885931973911,0.00689677898946585,0.0128176998135042,0.0274315534246892,0.018998336194012,-0.00470057204403521
-0.0658097094860717,0.0137932359069146,0.0240504583655343,0.0156330147932539,0.0107265169687494,-0.0207542399899651
-0.0607303997449027,0.0194377712633422,0.0329678458922971,0.0102151071549557,0.00942987330308951,-0.0300502998728799
-0.0525343137527929,0.0289261773535092,0.0407918567642606,0.00920101364044796,0.00147344907496699,-0.042956988382959
-0.0504685091832428,0.0310302059503986,0.0432062617522908,0.00707005335724971,-0.00190048473607415,-0.0575288650974335
-0.0479432993601869,0.0333399238015905,0.0465657229994339,0.0060442210881416,-0.00887445588322327,-0.0788238245118537
-0.0487451345890362,0.0318324020557485,0.0475188174098732,-0.00892206197615452,-0.0230162649934602,-0.0997099128650445
-0.048337528168017,0.0310690618807046,0.0524631151781505,-0.0173120027383574,-0.0253479749191498,-0.0934179846814381
-0.0455189699141226,0.0327933171823243,0.060601520653808,-0.0254528881353077,-0.02471342008651,-0.0744824256927246
-0.0391369130311804,0.038738657846602,0.0706281120094026,-0.0136056989246393,-0.00615912076794401,-0.038532149868582
-0.0324004350486602,0.0444053900548114,0.0798536870024804,0.000654268683589359,0.0272529464186561,0.0244809576584847
-0.0276792757312664,0.0486754209096862,0.0854434998929213,0.0228093679673675,0.0447268043118409,0.0833780547350032
-0.0320651497244982,0.0433599647959879,0.0832181788360447,0.0432781712140745,0.0648508690250249,0.109281927260707
-0.051298355097455,0.0230794984064679,0.0659392279297803,0.0571105135135466,0.0868369911107851,0.133785653767194
-0.0815065651167224,-0.0130376795063131,0.0372092958208649,0.0544112707492738,0.0852470735260016,0.139324125115518
-0.105996122400287,-0.046380575659714,0.00596904023929221,0.0363005826681934,0.0676630628398357,0.106271341061385
-0.119095149933996,-0.0672546349333464,-0.0154160391700678,0.019505724699404,0.0511327427196744,0.0729541343140234
-0.124987866153266,-0.0779511634533893,-0.0264590076583036,0.00314969896755694,0.0390849813990193,0.0553087790845012
-0.127250096466573,-0.0828076639116644,-0.0307197325912032,-0.0108449790000775,0.0318360000869627,0.0293007471201343
-0.127439325978047,-0.0833788786164983,-0.030881380061223,-0.0200192186678506,0.0284005015365403,0.0237264686222887
-0.127018670914257,-0.0824756553449149,-0.0300168855603447,-0.0231500303336775,0.0262573056225111,0.0285219430383634
-0.125659420049892,-0.079608641298329,-0.0272062578545233,-0.0251826484904984,0.0260496948482864,0.0220748168216308
-0.125119710970459,-0.0785210061841347,-0.0254583219501966,-0.0353848911276966,0.0184122740237174,0.00671271736722973
-0.123041768268071,-0.0739686980749105,-0.0224330795855297,-0.0406325499443021,0.0132961612287437,0.00511147230046983
-0.120644752382422,-0.0690448351435466,-0.0179344975958389,-0.0499934077626153,0.000207850766652253,-0.021646198364214
-0.117444149120367,-0.0626956536939976,-0.0138598394590987,-0.0565292283995954,-0.0127323717748906,-0.0265983782278541
-0.113225386414194,-0.0551314197385738,-0.00920442550398405,-0.0631333053666997,-0.0233652764365511,-0.0337168644675692
-0.109911632862681,-0.0497456838413523,-0.00609970455646721,-0.0799770507293522,-0.0440655267286132,-0.0624684183280679
-0.105337032056526,-0.0425260566972087,-0.00242203553397456,-0.0837847592069154,-0.0512845682036373,-0.0618473673247355
-0.102448287473592,-0.0378524649149074,-0.00181587986421961,-0.0920265288197737,-0.0612887793429189,-0.0736969761904972
-0.0994679830332673,-0.0328671145169877,-0.00235136478938633,-0.0925789409137911,-0.0675569120816503,-0.0777392656637877
-0.0986297901175585,-0.0309002096847774,-0.00480732148948369,-0.083156659968728,-0.0565813052899479,-0.0556344102467112
-0.0973149239412135,-0.028090108139817,-0.00772219666384521,-0.0764007661362413,-0.0534674924039901,-0.0621744888327756
-0.0945950952248744,-0.0237212037307521,-0.00865651664850079,-0.063482475956688,-0.0434918773468586,-0.0423969100067856
-0.091407591390791,-0.0189133309256618,-0.00661161548380389,-0.0547111380871798,-0.0389465855695409,-0.0475770095890012
-0.0899367605697159,-0.0168330621217015,-0.00592287630837658,-0.0550461560347623,-0.0349248611970046,-0.0237164292291907
-0.085178841912146,-0.0101555883340948,-0.00333365164548466,-0.0488186899502781,-0.0314868324154018,-0.0202054187041921
-0.0826175841983526,-0.00668885986294948,-0.00270330781641582,-0.0523743171300216,-0.0337994928078561,-0.0213549153202597
-0.0788790726058317,-0.00170309664556145,-0.00201339680865802,-0.0446726753955719,-0.0297338475933135,-0.00554120638707597
-0.0745517491444974,0.00387453235220622,-0.000747677170474636,-0.0481951393178913,-0.0357424895820382,-0.0223794927966581
-0.071707386440345,0.0074638409694704,-0.00169232192066999,-0.0402537150327297,-0.0283027212333821,-0.00306877996421338
-0.0687819679176645,0.010990927808103,-0.00364822341213521,-0.0439897008322455,-0.0326253690168097,-0.0146005026652899
-0.066840683551734,0.0132150216970332,-0.00554227769768683,-0.0407253201690396,-0.0313581553867237,-0.00234235618468721
-0.0647790687797641,0.0154925408500147,-0.00643843077760143,-0.0440042686909981,-0.0361098745481088,-0.00114786591686217
-0.0627037639601114,0.0179272980537098,-0.00595141885830342,-0.0383874961591322,-0.0372152603220773,-0.00469237982957829
-0.0596630273615638,0.0214813745572686,-0.00514693539873923,-0.0395447016522105,-0.0379614703892914,-0.00753781432681329
-0.0575564278142491,0.0238306800284311,-0.00499021096564769,-0.0372188282164527,-0.0407878293077891,-0.014763818142853
-0.05689096104738,0.0245671459483477,-0.00672916670544694,-0.0284996773564338,-0.0345676797339849,-0.00885733804457231
-0.0571320179133227,0.0239580648858225,-0.00995283029127413,-0.0254710835889848,-0.0333912734731914,-0.00173013970139286
-0.0568874562148279,0.0239565106624949,-0.0124420067179532,-0.0229688877171698,-0.0310677374123636,0.00385896624778139
-0.056806345533178,0.0236108996320623,-0.0157374911124985,-0.0286056926318015,-0.0361352100675332,-0.0106100252022217
-0.0576053533226579,0.0223815836360276,-0.0177978853447524,-0.0185380036183899,-0.0327957734089982,-0.00733446719173696
-0.0561349423589958,0.0235606712709877,-0.0196544634938061,-0.0219654706997277,-0.0405133525763558,-0.0310587019089119
-0.0560641063757629,0.023282773371334,-0.0221192298896886,-0.0208219849553018,-0.0375740025039387,-0.0274982032734617
-0.0536997471068799,0.0256215886695025,-0.0221327622855653,-0.0204779651973963,-0.0401999599404048,-0.0219156723072296
-0.0530949235004079,0.0260386710348963,-0.0239853131493146,-0.00349724044307487,-0.0236609051710024,0.0161126604311906
-0.0524320059657324,0.0265475734731013,-0.0255879922376608,-0.0113183093121852,-0.0292107965949856,-0.0101880546084385
-0.0508082089645728,0.0279241209650693,-0.0270395182160269,-0.000515427468454963,-0.0199747009598632,-0.00358386222933143
-0.0510334425235131,0.0272700518878507,-0.0284981641072048,-0.00043082746002944,-0.0193910552362956,-0.00905696072310375
-0.0492906843998819,0.0286654691757902,-0.029624694658511,0.00658308254163283,-0.0141829700381656,0.00777247209249731
-0.0468699371142359,0.0309327398991681,-0.0292808587347097,0.00605493951406218,-0.0137048067270186,0.031595853419739
-0.0438500992866836,0.033681221610109,-0.0301621802760061,2.25043942542961e-05,-0.0206398844971588,0.0180342995072886
-0.0404009169363777,0.0366039381593604,-0.0315810349541413,-0.00305785870428723,-0.0164292410573141,0.0352458790025249
-0.0370655757631341,0.0396289229802791,-0.031770782384717,0.000822906307410067,-0.0158594330384676,0.031693195074579
-0.0348886296507939,0.0419218244061717,-0.0305951793194465,0.00760949212660431,-0.0135443700852345,0.0324441149627375
-0.0348322060487613,0.0420134769398859,-0.0303529547806974,0.0140088823922692,-0.014258051072019,0.0342865078398528
-0.0335517632905637,0.0436858447670318,-0.0289067269544136,0.0155156748528082,-0.0168081007956751,0.0315295569710476
-0.0331424586893521,0.04371282108355,-0.0305855385270746,0.0163022053469006,-0.0169462195129502,0.0377177408119732
-0.0298079439319136,0.0474935456611305,-0.0281787711281796,0.0145935182569725,-0.0198826953687279,0.0276328461436217
-0.0297475433566469,0.0476312763546861,-0.0278308366232568,0.00910835881470639,-0.0282282914669546,0.012173928368127
-0.0274130304498468,0.0499264530496756,-0.0276138572786278,0.0203601493959978,-0.0143883107867142,0.0477575744901578
-0.0274362349405556,0.0496556634500491,-0.0295801159490138,0.00151573516356265,-0.0255453591698567,0.0138473059422386
-0.0249330069390167,0.0518020375804626,-0.0292048885492117,0.0140319488403246,-0.0198024374459519,0.0210032931371031
-0.0247577574337738,0.0518651810390333,-0.0288812765523135,0.0142802893160879,-0.0237985634106553,0.0300994004018875
-0.0232425189387703,0.0529374413203207,-0.0299403979853908,0.0166968614372183,-0.0193899429613647,0.0425840779806673
-0.0226096088684704,0.0529127134809705,-0.0315867367958897,0.0182943323812222,-0.0224870715578392,0.0297070897088545
-0.0232129498631212,0.0516626225767705,-0.0339141980309956,0.0162830258376351,-0.0210621610627271,0.0517682434707177
-0.0249466061130373,0.0495344443853066,-0.0364762696601165,0.0149073562416516,-0.0195284344958512,0.0407264365979821
-0.0284122017886577,0.0457656394837134,-0.0397191743981396,0.0127258430960171,-0.0172511129226529,0.0321301118582273
-0.0305896445808627,0.043554449914695,-0.0395255022080763,0.020055065338775,-0.0215666334899778,0.0250447897689795
-0.0335760908183169,0.0404344580428691,-0.040784060463735,0.0244061335546767,-0.020346841999509,0.0297383877535214
-0.0344039859010535,0.0391853765824867,-0.0417108326926336,0.0295034544680741,-0.0209682540044704,0.0358179777348405
-0.0333253458761015,0.039408431544404,-0.0436736625984551,0.0301210686609339,-0.0244310763137069,0.0280751500814463
-0.0295555639101431,0.0422295002909681,-0.0459023752577116,0.0208007375685272,-0.0294426114375269,0.0124331727125522
-0.0237068625542214,0.047268271844241,-0.0452217918172143,0.0335693403460659,-0.0201082282869812,0.0416102810688595
-0.0161982529984005,0.0542105675503297,-0.0427554086188788,0.0294533042573343,-0.0285236781588883,0.0155804398793411
-0.0105395526570711,0.0593681010567011,-0.0394238827681846,0.0392981612996177,-0.0303249790278182,0.0277104182641758
-0.00405406782718213,0.0667871030627662,-0.0323166976595849,0.0418358725035867,-0.0330487921286952,-0.00879624586388223
0.00335994454443989,0.0757013976355028,-0.0215857193320988,0.0380291607493285,-0.0357649223137559,0.00935166885667846
0.0126972521939856,0.0867517555643065,-0.00813313517454568,0.0366875874257327,-0.0289815980185849,-0.00500113445667432
0.0217101628484385,0.0985274466563803,0.0148040163211846,0.0314206333935424,-0.0262526304030098,-0.0398432729783302
0.0291684048249869,0.10693202730676,0.0350703712192167,0.0255166396229449,-0.0283529417660833,-0.0456726445355618
0.0363246792480358,0.113562261276713,0.054301910062163,0.020399181703349,-0.0259066352178341,-0.031062870112763
0.0399996151546788,0.116466825484781,0.0685305066073372,0.0210377180859519,-0.0217468773212676,-0.0312965327883406
0.0457675131674247,0.120214339423727,0.0791787955625826,0.0177903639542567,-0.0181540460454278,-0.02837412688572
0.0467829190035341,0.120839975468649,0.0847738781216125,0.0321229289343891,-0.00580689357723724,0.00764348012535769
0.0462705954786471,0.120051094515842,0.0892308534569537,0.0396567083540982,0.000610609507159319,0.0243259337521426
0.0425207505113386,0.116795747621381,0.0929188448584515,0.0456601820360461,0.00367027741326712,0.0199100350256204
0.0350385420296406,0.110966280908867,0.0928810332736264,0.0538439702961658,0.0104330480527183,0.0389102355930993
0.0284953877641202,0.105598931188009,0.0929043831413591,0.0547637255794842,0.0139369505222246,0.0408249109907403
0.023542332594057,0.101019003751604,0.0942524341077246,0.0469707134611985,0.0130965148314736,0.0320065567615299
0.0209506857289738,0.0983660625630274,0.0956892986189513,0.0396404210365258,0.0126669395574258,0.0279861467036328
0.0195415737695172,0.0968187456110257,0.0963321209443367,0.0346987003678451,0.0116133504277609,0.00254912844151588
0.0157995908303375,0.0934263677155084,0.096124960800636,0.0354719342283055,0.0146821144359554,0.00255727026525911
0.0124380864693944,0.0908705547266261,0.0938266061116328,0.0409031959810919,0.0150161861251159,0.00888340159171817
0.00792919144977217,0.0868630227257187,0.0920348396402844,0.0370596786303614,0.0150363980941965,-0.00993883607020377
-0.000704538209988958,0.0793877021209737,0.0884211612830729,0.0477545920144439,0.0226722141999452,0.0292236845336286
-0.00881348476477937,0.0716959810109311,0.0847275111464266,0.0417399725638744,0.019874912662743,0.0409131186646981
-0.0173696461853953,0.0632089163973213,0.0810420213921871,0.0384108721844048,0.0217933176059628,0.0443100267574552
-0.0244429613624372,0.0555131243851426,0.0787739227012562,0.0273156709673886,0.0169377971951797,0.0256312467094868
-0.0282569227539077,0.0514073473138953,0.0765918826409082,0.0150306430756801,0.0112335605449986,0.0175920923573658
-0.0289383584018764,0.050359069780145,0.0767286532174042,0.0120379230056456,0.00951033584459737,0.0118490911752086
-0.0267291868159456,0.0527715653195685,0.0782328666856865,0.0229496092117335,0.0168122519996369,0.03562923334606
-0.0258827584012871,0.053678822906703,0.0791137922949155,0.0310698455516758,0.0234633747749076,0.0438163589402162
-0.0277348324100357,0.0518868256074898,0.0777436764973663,0.0347327403031475,0.032442865838882,0.0379988965929877
-0.0318480175304618,0.0484625014051746,0.0722706160305197,0.0327605967105006,0.0299440201719825,0.0366031713472072
-0.0397889953294729,0.040664046239384,0.0642496403033242,0.0365476887621994,0.0287497245426117,0.0337572177191246
-0.0494371533593618,0.0306120780625747,0.055787446103636,0.0417282386976556,0.0298196183484563,0.0519878619653018
-0.0600807964749285,0.0189272858922087,0.0447742545072666,0.043982322721908,0.0315245394616977,0.0526042943667504
-0.0697996720617271,0.00746456327832041,0.0360211988235628,0.0321033998147267,0.0230351368853796,0.0372731898976376
-0.0766486498987268,-0.00109540274613699,0.0295107641269688,0.015837023107605,0.0179137338075489,0.0235946820876749
-0.0795305421791405,-0.00476907003378726,0.026849790731096,0.0220962709842284,0.0174649428618823,0.0401648978208489
-0.0827600756419441,-0.00930351673496162,0.0257074725694151,0.0159371303219812,0.0152039024766768,0.027479216440069
-0.0853604924493814,-0.0125548084012905,0.0220008798247899,0.0108542344272709,0.00856786288541373,0.00402639687965972
-0.0887754684839276,-0.0170205952206179,0.0173636765551614,0.00360389091496681,0.000960020202004891,-0.00269702719046078
-0.0906434020678786,-0.0193415978073114,0.013615037545851,0.00756641993566703,-0.000793521194871751,0.00153731763421545
-0.0935472624390521,-0.0231320923653594,0.00884127985419096,0.00233185145156381,-0.00491719450082822,-0.0106457896772904
-0.0932504984102338,-0.0224609460946945,0.00751146976720311,0.00463747856070806,-0.00150518104005802,-0.0139286033286371
-0.090647514825652,-0.0187396595661568,0.00891386945126358,-0.00211133062583143,-0.00767998591028187,-0.0290147210900264
-0.0860880520075164,-0.0123920298456376,0.0124384975246125,-0.00495001489929294,-0.00989029208627161,-0.0383564188169669
-0.0794229453266201,-0.00350760478589943,0.0186287367873538,-0.00374145700269695,-0.0106609686456606,-0.0358339529376934
-0.0716613086620628,0.00634987227828418,0.0255418803058239,-0.000608565859867754,-0.00885247764446861,-0.0407689277902637
-0.0635143519962728,0.0163367652579762,0.0327278328895326,0.0065192344047497,-0.00624735120369442,-0.0396134625122739
-0.0583949348624732,0.0223169562564321,0.0378815954501668,0.0120406731088181,0.00126553291806498,-0.0159989225245686
-0.0548298044494938,0.0265945934530495,0.0389198611260794,0.00876104689346464,-0.0048725914343394,-0.0377440991562701
-0.0548292968846935,0.0267427362648445,0.0386835290353889,0.0162899576146786,3.21560849960049e-05,-0.0114577930585195
-0.0554343661676338,0.026345685225726,0.0357143794471478,0.0123103891727546,-0.00283325469617245,-0.00681458376310272
-0.0569542521054719,0.0247232446030675,0.0332771728810868,0.0135913507111658,-0.00311712022996018,0.01300822381437
-0.0579180127752945,0.0237445323193079,0.0301646278581659,0.00657797195436092,-0.0115199701616478,-0.0017427311475084
-0.0595824314996123,0.0219331909199238,0.0268173638117157,0.014090724598171,-0.00870330331773129,0.0190212760887997
-0.0605864205970011,0.0208309340345276,0.0255146423329867,0.0203619292532192,-0.00581009614254849,0.0293794412164388
-0.0616973969572414,0.0195728953399273,0.0221957134867856,0.0152784798427223,-0.0145688674817086,0.0101817161704491
-0.0629257289948435,0.0180341197888837,0.020703462946121,0.0226622886384235,-0.0144327632052857,0.00555426688537697
-0.0639818898437702,0.0168894566635764,0.0172619804864899,0.0179757000319181,-0.012845496424785,-0.0151359032396498
-0.0619905225715797,0.019391590733287,0.0184883458957572,0.023476391431138,-0.00969787584369581,-0.00647343209612733
-0.0601620992834505,0.0215169961298937,0.0205690370399121,0.0289614778952303,-0.00798105131635629,0.00171377025558013
-0.0574594477957063,0.0246350501887579,0.0227381590436681,0.0246264173711041,-0.0158155645761163,-0.00885444435492214
-0.0539930105269953,0.0286566062369468,0.0228683351102021,0.0174617538964668,-0.0246043988960116,-0.0280775550683434
-0.0512595876276878,0.0316390683042892,0.0235935981740831,0.0125376207444077,-0.0340477786804309,-0.0355433733088118
-0.0482468465805543,0.0348218460651517,0.0241892900558563,0.0029105310157882,-0.0451554541950504,-0.0343065821099499
-0.0490667606469054,0.0335159341574852,0.0188176952178805,-0.0138003879521664,-0.0638628232544353,-0.0672312638570079
-0.0440834133411726,0.038892467709083,0.0161562394738313,-0.0167396035209216,-0.0682531463499304,-0.0768745185659561
-0.0409184996149549,0.0420172909959864,0.0163117528262243,-0.000990450831732117,-0.0638370184346547,-0.0492821298998042
-0.0406973298686132,0.041728154023713,0.0126689675521963,0.000845655537244333,-0.07211915450971,-0.067223190625252
-0.0382559272151243,0.0444288524098161,0.00979848541090507,0.0102857360579556,-0.0594166755275604,-0.0463700601685316
-0.0349563048423865,0.0480326051430424,0.0123554392643667,0.0195216554644558,-0.0513105771656919,-0.020453020841985
-0.035856780009168,0.0472168920304387,0.0127653142669649,0.0184923743457347,-0.0518530748513363,-0.0240491588944454
-0.0342314237649538,0.0489218505308384,0.0133263022820517,0.0267124479578564,-0.0452430856610261,-0.0163443424679363
-0.0345533652772998,0.0488422633912897,0.0170497007951803,0.0425853635847747,-0.0343386598256009,0.00316180785006646
-0.0347867648127332,0.0489788045550487,0.0191919484536803,0.0386172989642872,-0.031768066674332,-0.00144658133261903
-0.0332179524893051,0.0508249462440738,0.024488921704848,0.0350155943714834,-0.0324485582508285,0.0138334982386596
-0.0330198850950091,0.0512872567794529,0.0279093888219115,0.0326330374770418,-0.0303261769693601,0.013764594232754
-0.0302655945292889,0.0543958930014507,0.0310079074483802,0.0202497256085819,-0.033765441263623,-0.00888582671418189
-0.0277765312601843,0.0563480973249209,0.0349152401232108,0.0238886327435488,-0.0420453382292624,0.00737323049487711
-0.0278699227815476,0.0564258486654717,0.0353959801749138,0.0232429041815452,-0.0415356043440141,-0.00956960425369949
-0.0291655084883764,0.0550046110853389,0.0322924480595919,0.0198027537439822,-0.0445231059472916,-0.00688995683501269
-0.0332324510653655,0.0507068965356579,0.0265072311094809,0.022319493713546,-0.0449358908420679,-0.0117311918350616
-0.0392197303715474,0.0444197656558586,0.017669692115088,0.0239486783194425,-0.0385187860287034,-0.0130795060537444
-0.0446010477482282,0.0379133249946494,0.0129199686379929,0.0229864167040111,-0.0488176364103915,-0.0135358758714603
-0.0484728657771804,0.0335218167878441,0.0063729846069096,0.0328807029248474,-0.0397497295976818,-0.00852926014275778
-0.0522852344424255,0.0287714518284335,0.000640571554547752,0.0305729817841913,-0.0430303714775748,-0.0187276610503904
-0.0554564750686974,0.0249785669434353,-0.00423916581122606,0.0304924884980359,-0.0406173133038925,-0.0178103036446409
-0.0602711694860942,0.0186081983565676,-0.0149088375778118,0.00306736669459272,-0.0483429546814551,-0.0372470401452057
-0.0576458485650357,0.0213559700684366,-0.0103193749234789,0.0170184969636312,-0.0576156487027335,-0.0286375127212792
-0.060772172991195,0.0174862784509026,-0.0157155801297082,0.0169542484069784,-0.0547443966295628,-0.0463881483071884
-0.0624779056235302,0.014897051535255,-0.0217465751688829,0.0166159746863601,-0.0498855924631297,-0.0333850228448723
-0.0643023172851784,0.0123005350364641,-0.0204294570664718,0.029663615922657,-0.0504292980187885,-0.0295832445542832
-0.0647032731617451,0.0113319490159205,-0.0227957886020063,0.0330604190373314,-0.0456136998591996,-0.00705767958124549
-0.0661143834374772,0.00921605001671903,-0.028011632908816,0.0229743003063357,-0.0497073811225498,-0.0221018871047291
-0.0666829425602772,0.00787998484553615,-0.029580162444211,0.0226936561325969,-0.0566637295460412,-0.0394419021167051
-0.0652573783938704,0.00924758211792942,-0.0295111255663787,0.03274027013778,-0.0503291178509518,-0.0185300283659185
-0.0687730551638673,0.00466031039404624,-0.0339441391691333,0.0220122758903091,-0.0536500749291406,-0.0198342344448094
-0.0665819754087221,0.00691216683583057,-0.0328415869763341,0.03374545172195,-0.0543675132916545,-0.0314308165360648
-0.0676248556397855,0.00492842174217668,-0.0371126124929398,0.0308441337519473,-0.0502264043199545,-0.00591685224166981
-0.0655178954956885,0.00717796663307083,-0.041061334767419,0.0232226972024592,-0.0456596600963693,-0.00194461134513621
-0.0616196332633459,0.0116027925272562,-0.0344032354880674,0.0386643858446923,-0.0559448285141602,-0.0132660568267663
-0.0611213337336793,0.012460192725368,-0.0338309088102507,0.0451274994043253,-0.0497132130285376,-0.0365558366546806
-0.0581665982655565,0.0157936648258821,-0.03091782675346,0.0466516951245549,-0.0535408456929487,-0.00267482299051852
-0.0559226747979753,0.0184468645315172,-0.0305876720938694,0.0464025519671262,-0.0520044317187708,-0.00234934662396794
-0.0555882373254872,0.0190952812044428,-0.0282315730737214,0.0511871993840411,-0.0537674444398539,-0.0278832756990634
-0.0536390261930779,0.0213797949567304,-0.0259098643114561,0.0531863595831433,-0.0543008461387184,-0.00646572291099072
-0.0537893600506911,0.0216264017165174,-0.0278783448361801,0.0353790320861367,-0.0589844483497335,-0.030232752572666
-0.0500964709342284,0.0255559160828235,-0.0240868357851835,0.0413676865417602,-0.0637591978089215,-0.0237474909899288
-0.0502919996768888,0.0257126802715964,-0.0211140431379686,0.0522608238014892,-0.0589379649022869,-0.0236554446880287
-0.0505549937424269,0.0259048395023125,-0.0213223054156234,0.0587304744741693,-0.0491219825847606,-0.0287547527178774
-0.0501918244974393,0.0265402527320357,-0.0215683968903488,0.044932379927098,-0.0561806790007264,-0.0253415838353677
-0.0498316897597597,0.0270929838376922,-0.0218594139379838,0.0534853705191729,-0.0455336039287382,-0.013226629399039
-0.0500243666094335,0.0270167183389205,-0.0166895935336737,0.0614734497081229,-0.0493725507918964,-0.00353149484781194
-0.0514859095730432,0.0255456113503205,-0.0190289949104541,0.0616294211130837,-0.044136873483254,-0.0140916881015228
-0.0532061186835867,0.0236886183699417,-0.0213506519144609,0.0575381117780852,-0.0379296592893636,0.00642212923311863
-0.0515743944573111,0.0258532505012368,-0.0213016237163235,0.0547261917880471,-0.035410624873681,-0.0298709306540046
-0.0496780884947557,0.0280878493532318,-0.0149654731200588,0.0398329409033431,-0.054663582705564,-0.0244843004066377
-0.0473011427522852,0.030741973869164,-0.0121010566601076,0.0582378043067082,-0.046549701594042,0.0203251202438744
-0.0443991242823897,0.0343026748708268,-0.0124190448697739,0.0545413960562601,-0.04824547507626,-0.0329937722849019
-0.0409971609741981,0.0377691421463028,-0.00836489169529191,0.0670830510761924,-0.0459391686305642,-0.00269267476259035
-0.0377813328353298,0.0415513126052613,-0.00904392184342558,0.0546427097496479,-0.0499578672549723,-0.0258955600746373
-0.0335122417482357,0.0464167603917494,-0.00726737903884196,0.0424591996878803,-0.0533619469252563,-0.0325704665868419
-0.0324009801848108,0.0472302190850219,-0.00408978734436597,0.0605252299746615,-0.0472340500276482,0.0106829400310789
-0.0309045144112719,0.0488134496683565,-0.00298993602108044,0.0472119230070339,-0.0623704612957711,-0.0579841972691003
-0.027967587310058,0.0516792392345582,-0.00104317502813048,0.0611603047691809,-0.0497434482959458,0.000548488325252821
-0.0287980984532603,0.0507336977878833,-0.00169508977241484,0.0493706239389536,-0.0580042215208813,-0.0145892885295956
-0.0264132280059695,0.053020822473459,-9.66418121712553e-05,0.0503623919638434,-0.0601788236637104,-0.0180721320768479
-0.0255306951046492,0.0537224295599961,0.000353068317706904,0.0488419656806736,-0.060936105296313,0.0106348223163336
-0.0242793813697081,0.0545816861146317,-0.000669891910627169,0.0516553939626263,-0.0645066476530458,-0.00866189631431147
-0.0242631815971973,0.0542211550565678,-0.00531693538022662,0.0525929709158123,-0.0500772138084769,0.0195447532246059
-0.0166492293230125,0.0620237056736944,0.00150004726829543,0.0463960130942336,-0.0718322864193308,-0.0499049960549776
-0.0151433910302885,0.0622761272493802,-0.00277372109649999,0.0600108856646908,-0.0624980206820245,-0.00660537970013286
-0.0125850982801941,0.0645614879284057,-0.00270938400592587,0.0738664031684686,-0.0566438854752402,-0.0326670951472078
-0.00885014588374601,0.0673991019266418,-0.00379521298593671,0.0563419017386139,-0.0679576438172241,-0.020324630886528
-0.00176410515946847,0.072999088818538,-0.00441599703088075,0.0810343864535993,-0.0499949123397131,0.0116595697634026
0.00223784886983181,0.0755053326742647,-0.00496861318737488,0.0712703375976979,-0.0692561606465854,-0.0589659126998808
0.00722763097566409,0.0788030780870141,-0.00337358362848254,0.086191490248221,-0.0674982204146173,-0.052593275611869
0.0149014570398683,0.0844456812039643,-0.00470608439250615,0.0862942702788049,-0.0626289550655623,-0.0463771122007984
0.022887323260176,0.0885072018788924,-0.00391503702104866,0.11325532550677,-0.0571669405477868,-0.0287962980884487
0.0347105566629755,0.0933971641712766,-0.0144588980925324,0.109322139404688,-0.0503253537575437,-0.0582543304058041
0.0485669824969272,0.0949565470982572,-0.0226649927101442,0.123773164294028,-0.0501295095526484,-0.0307239587352406
0.0470196182150834,0.0790322242639693,-0.0506497588322097,0.13942178945433,-0.0255831942030417,-0.0621470815000777
0.0283455594193249,0.0458699810836674,-0.0837938445101775,0.144731401448578,0.0113900498754131,0.0174385240064004
-0.00963552595100972,0.00636805999712296,-0.0998635599786542,0.208355919045325,0.0363813096712492,0.0624017412581552
-0.0401248135001339,-0.037170961626232,-0.12111838895406,0.182645245506639,0.0327150174786108,0.0511460804450086
-0.0709840512048145,-0.0701532819565394,-0.129172587732266,0.161589368253175,0.0574740845192914,0.046345561600293
-0.0779310169672853,-0.0847560530247016,-0.12945890801057,0.156016291136712,0.0631795729104625,0.0571683208213738
-0.0836268519547668,-0.0932725728271972,-0.131958522749404,0.149448046748866,0.0601134729996928,0.0591852328629472
-0.0762097642325255,-0.0944511306244746,-0.136518889599513,0.137957947594777,0.0513652945575846,0.062865346731216
-0.0621988563757789,-0.0892396032095815,-0.140013279369035,0.124382287128651,0.0319006529669274,0.0239855125901307
-0.0333515690658437,-0.0725765668621631,-0.139514226058066,0.098582454504915,0.0130937352062722,-0.00337732587220403
-0.00654603776016136,-0.0550618166218224,-0.130055763642214,0.0825485646452724,0.000615230579546065,-0.010096264989432
0.0163692357797004,-0.0381934899028592,-0.118624860598052,0.0498499049170812,-0.0171834849843593,-0.0135378157593956
0.0288790895371302,-0.0267103203390056,-0.110945884576234,0.0368814550434296,-0.0274645660374833,-0.0177477415639582
0.0353314648874138,-0.0212102881301182,-0.104971820524049,0.0327693305279998,-0.0400984933784712,-0.0275901769704688
0.0381919668231333,-0.0191094294216702,-0.102453345897527,0.0260651777688266,-0.0433653331304897,-0.0221725458780563
0.037262015196526,-0.0202475975776351,-0.102001524505505,0.0397386463288538,-0.034217679964624,-0.0104118853285064
0.040257551308719,-0.0181202387242032,-0.0990414688394795,0.0372976645859533,-0.035926590647499,-0.00887012774358317
0.0442553892296934,-0.0150967496864255,-0.0965084142514621,0.0227675155478684,-0.0378668581369768,-0.0239134816090414
0.0467608543624465,-0.0156122028024852,-0.091739165305446,0.0110689981209367,-0.0405024685233736,-0.0240740071293585
0.050562338414768,-0.0122495383495153,-0.088226981598893,0.0153040806959572,-0.0337594104013695,-0.0344080850451721
0.0547316009802426,-0.00778206562792464,-0.0843365063835603,0.0163503020018721,-0.0333574695113928,-0.0415661129711947
0.0586895444630139,-0.00523387929906255,-0.0795227866525209,0.00980262122830714,-0.0316821642455109,-0.0378100070844294
0.0607119299082973,-0.00432426772997239,-0.0770242106350085,-0.0195914062983078,-0.0466752293673641,-0.0413234467872026
0.0609923256990019,-0.00383545294641904,-0.0763086526982786,-0.0122412538839493,-0.0420332512223121,-0.0514958921701721
0.0614882746424673,-0.00484467516717027,-0.0726179071120302,-0.0211832383113012,-0.058637092152732,-0.0552313898875573
0.0598978661687605,-0.00427182634953955,-0.0749435991213551,0.0114088403127016,-0.0366074032691832,-0.0283034723451455
0.0573092192246802,-0.00623814164782298,-0.0777552703891465,0.00546710814732372,-0.0428265318511388,-0.0839434356681048
0.0552436800092352,-0.0103148969532466,-0.0753748320080554,-0.0149625594417843,-0.07237835726591,-0.0841530267109681
0.0512365906704869,-0.0121040139180558,-0.0804476089744086,-0.00401760773977365,-0.059588493105622,-0.0407121432941965
0.0504709793012831,-0.00885359707483637,-0.0813815178684412,-0.0107267707596888,-0.0563408550509128,0.0153147276910448
0.0480045488720857,-0.00556240833162601,-0.0807552815836484,-0.0186958113403706,-0.11640865895696,-0.0958693971739686
0.0525224786290589,-0.00266266059220479,-0.0725509232717103,-0.0714450615478152,-0.104797268013419,0.00532738291995113
0.0509446662029255,0.000932128527421606,-0.0633869254966638,-0.119835310596387,-0.177478302162173,-0.00414225267824567
0.0345617484865606,0.0190243315843568,-0.0521730943873926,-0.0460200889799001,-0.129007014895034,0.314250886778508
0.0236591496688065,0.0359759431305799,-0.0128996543968434,-0.051453329815927,-0.246804752292571,0.0866169433108748
0.00854340249962077,0.025652726539565,-0.00422018482039584,-0.135541808267573,-0.271946934524369,0.00030468918608291
0.0309797255661025,0.0229126786917998,-0.00899391123025301,-0.176706808902047,-0.174576598254096,0.360788426260038
0.0204872617638265,0.0137007597457083,-0.00157339175794572,-0.165525808697309,-0.231096364988909,0.276718276566444
-0.00533789358103836,0.0141759371448511,-0.0390171065458511,-0.172517256803547,-0.226996629354588,0.220494923507252
0.0155852224368349,0.0270348199172273,-0.00675829091548815,-0.0610764628617582,-0.181932910065128,0.368684921386388
